Layer: conv2d
Weights shape: (3, 3, 1, 32)
[[[[ 0.19481398  0.24280185  0.27361307 -0.28589225  0.20593704
    -0.10842995  0.22315954  0.29106855  0.19312347 -1.0370492
     0.18986435 -0.21684523 -0.14246655 -0.4060725  -0.0979166
     0.30155286 -0.33197847 -0.09172703  0.28818065  0.19052553
    -0.25451875 -0.06735314  0.15996352 -0.2729328  -0.83610594
     0.381261   -0.15033488  0.21175222  0.1332903  -0.7934713
     0.10838173  0.06992194]]

  [[ 0.15670668 -0.0739584   0.10502151  0.33498964 -0.02112827
     0.19582783  0.07723689 -0.16776311  0.45081884 -0.3588971
     0.01170302  0.01087106  0.10356423 -0.1058189   0.15666431
     0.5679821   0.25564155  0.08135549  0.10050583  0.18959087
    -0.11870049 -0.58181125  0.05155267  0.01172936 -0.9578646
     0.5106863  -0.34071803  0.07587269  0.10575898 -0.7899713
     0.22223772  0.21022674]]

  [[-0.32155636 -0.52656025 -0.1570879   0.00849804  0.12567674
     0.34700906 -0.3796445  -0.13906448  0.5188182   0.4266623
    -0.19538224  0.15080446  0.1452768  -0.05384382  0.124702
     0.5528339   0.37874556  0.12499414 -0.23185593 -0.10718141
     0.18069045 -1.0527717  -0.37963098  0.2160468  -0.46556544
    -0.40199292 -0.00184698 -0.4054706   0.0533805  -0.7413031
    -0.26661932 -0.2502407 ]]]


 [[[-0.11901757  0.07495707 -0.09661826  0.2702657  -0.28897637
     0.09192818  0.18707651  0.14375044 -0.05096382 -0.7433791
     0.05594737 -0.08324481 -0.26792648  0.15199591 -0.07081732
    -0.11131763 -0.887143   -0.23418902  0.1014781  -0.02631187
     0.09783476  0.71457314  0.06779689  0.00558968 -0.8568473
     0.60669404 -0.18291561 -0.07205936  0.05383544  0.0982545
     0.36771864  0.10298012]]

  [[ 0.19063635  0.39629695  0.09735322  0.42205057 -0.10758241
     0.20844553 -0.27673233  0.03547401  0.2119956   0.1658375
    -0.17283984  0.20489612 -0.02737274  0.39961523  0.03659555
     0.0939548   0.19431692  0.02245542 -0.0904297  -0.07070074
     0.16970015  0.11552282  0.27723363  0.14223951  0.08462055
     0.14540935  0.19379407  0.2390706   0.25708628  0.30026546
     0.24361679 -0.12144033]]

  [[ 0.08090635 -0.26528618 -0.13466445 -0.49623775  0.12467354
     0.31688297 -0.01714926 -0.19027257  0.16534148  0.59708065
     0.03349418 -0.05206131  0.05396468  0.22953428 -0.05377309
     0.06584401  0.42503884  0.06296791 -0.15978524  0.09436436
    -0.00432453 -0.7369996  -0.0946176  -0.02054841  0.44292554
    -0.82847744  0.29264608  0.20361662  0.4635084   0.12675866
    -0.6886239  -0.1174179 ]]]


 [[[-0.27594343 -0.25408733 -0.04284644  0.14049289 -0.07133786
    -0.7627322   0.16153735 -0.08620486 -0.709101   -0.5635778
    -0.0897487   0.13249183 -0.27518976  0.02313703  0.13836025
    -1.1628783  -0.84719175  0.07511803 -0.33629233 -0.2553773
     0.03446395  0.6030605  -0.32910758  0.17478177  0.01677241
    -0.08821806  0.18082292 -0.15042531 -0.42851081  0.62836045
     0.47532415 -0.01219854]]

  [[ 0.0935204   0.3564852   0.04358918  0.13877764  0.09795097
    -0.5279028   0.13814516  0.18355182 -0.70656234  0.3034037
     0.17110056  0.10793626  0.07353619 -0.13415955  0.1556163
    -0.8029452  -0.05107756  0.06451776  0.25528285  0.10311683
     0.05780157  0.48875678  0.12841327  0.03546214  0.5942255
    -0.8106556   0.16172585 -0.08788507 -0.42781383  0.43533754
     0.00584066  0.20545544]]

  [[ 0.13883805  0.2665918   0.31708145 -0.6050197   0.14868219
    -0.46095154  0.00719108  0.30362144 -0.29883927  0.30510303
     0.15816714 -0.19512102  0.17021039 -0.37263504 -0.04782006
    -1.0081314   0.42745575  0.10338372  0.35008624  0.21098094
    -0.21147376 -0.13646333  0.16905327 -0.12487327  0.47969162
    -1.12304    -0.27964967  0.15170094  0.04808323  0.26588908
    -0.62521964  0.08806055]]]]

Layer: dense
Weights shape: (5408, 10)
[[-0.03327956  0.02199872  0.02273947 ...  0.0369601  -0.00451655
  -0.0148408 ]
 [ 0.0143293   0.02094355  0.00698405 ...  0.00886537  0.01978789
   0.0256254 ]
 [ 0.01844713  0.03949592  0.02197293 ... -0.01143693  0.00720969
  -0.00133602]
 ...
 [ 0.07421529  0.19885619 -0.05718742 ...  0.08368049 -0.10357802
  -0.00497893]
 [-0.06089349 -0.09878848 -0.05653119 ... -0.0614382  -0.21726897
  -0.09371921]
 [ 0.01781165 -0.00607075  0.06132119 ... -0.02486911  0.00667878
  -0.02227275]]

